name,emb_1,emb_2,emb_3,emb_4,emb_5,emb_6,emb_7,emb_8,emb_9,emb_10,emb_11,emb_12,emb_13,emb_14,emb_15,emb_16,emb_17,emb_18,emb_19,emb_20,emb_21,emb_22,emb_23,emb_24,emb_25,emb_26,emb_27,emb_28,emb_29,emb_30,emb_31,emb_32,emb_33,emb_34,emb_35,emb_36,emb_37,emb_38,emb_39,emb_40,emb_41,emb_42,emb_43,emb_44,emb_45,emb_46,emb_47,emb_48,emb_49,emb_50,emb_51,emb_52,emb_53,emb_54,emb_55,emb_56,emb_57,emb_58,emb_59,emb_60,emb_61,emb_62,emb_63,emb_64,emb_65,emb_66,emb_67,emb_68,emb_69,emb_70,emb_71,emb_72,emb_73,emb_74,emb_75,emb_76,emb_77,emb_78,emb_79,emb_80,emb_81,emb_82,emb_83,emb_84,emb_85,emb_86,emb_87,emb_88,emb_89,emb_90,emb_91,emb_92,emb_93,emb_94,emb_95,emb_96,emb_97,emb_98,emb_99,emb_100,emb_101,emb_102,emb_103,emb_104,emb_105,emb_106,emb_107,emb_108,emb_109,emb_110,emb_111,emb_112,emb_113,emb_114,emb_115,emb_116,emb_117,emb_118,emb_119,emb_120,emb_121,emb_122,emb_123,emb_124,emb_125,emb_126,emb_127,emb_128,emb_129,emb_130,emb_131,emb_132,emb_133,emb_134,emb_135,emb_136,emb_137,emb_138,emb_139,emb_140,emb_141,emb_142,emb_143,emb_144,emb_145,emb_146,emb_147,emb_148,emb_149,emb_150,emb_151,emb_152,emb_153,emb_154,emb_155,emb_156,emb_157,emb_158,emb_159,emb_160,emb_161,emb_162,emb_163,emb_164,emb_165,emb_166,emb_167,emb_168,emb_169,emb_170,emb_171,emb_172,emb_173,emb_174,emb_175,emb_176,emb_177,emb_178,emb_179,emb_180,emb_181,emb_182,emb_183,emb_184,emb_185,emb_186,emb_187,emb_188,emb_189,emb_190,emb_191,emb_192,emb_193,emb_194,emb_195,emb_196,emb_197,emb_198,emb_199,emb_200,emb_201,emb_202,emb_203,emb_204,emb_205,emb_206,emb_207,emb_208,emb_209,emb_210,emb_211,emb_212,emb_213,emb_214,emb_215,emb_216,emb_217,emb_218,emb_219,emb_220,emb_221,emb_222,emb_223,emb_224,emb_225,emb_226,emb_227,emb_228,emb_229,emb_230,emb_231,emb_232,emb_233,emb_234,emb_235,emb_236,emb_237,emb_238,emb_239,emb_240,emb_241,emb_242,emb_243,emb_244,emb_245,emb_246,emb_247,emb_248,emb_249,emb_250,emb_251,emb_252,emb_253,emb_254,emb_255,emb_256,emb_257,emb_258,emb_259,emb_260,emb_261,emb_262,emb_263,emb_264,emb_265,emb_266,emb_267,emb_268,emb_269,emb_270,emb_271,emb_272,emb_273,emb_274,emb_275,emb_276,emb_277,emb_278,emb_279,emb_280,emb_281,emb_282,emb_283,emb_284,emb_285,emb_286,emb_287,emb_288,emb_289,emb_290,emb_291,emb_292,emb_293,emb_294,emb_295,emb_296,emb_297,emb_298,emb_299,emb_300,emb_301,emb_302,emb_303,emb_304,emb_305,emb_306,emb_307,emb_308,emb_309,emb_310,emb_311,emb_312,emb_313,emb_314,emb_315,emb_316,emb_317,emb_318,emb_319,emb_320,emb_321,emb_322,emb_323,emb_324,emb_325,emb_326,emb_327,emb_328,emb_329,emb_330,emb_331,emb_332,emb_333,emb_334,emb_335,emb_336,emb_337,emb_338,emb_339,emb_340,emb_341,emb_342,emb_343,emb_344,emb_345,emb_346,emb_347,emb_348,emb_349,emb_350,emb_351,emb_352,emb_353,emb_354,emb_355,emb_356,emb_357,emb_358,emb_359,emb_360,emb_361,emb_362,emb_363,emb_364,emb_365,emb_366,emb_367,emb_368,emb_369,emb_370,emb_371,emb_372,emb_373,emb_374,emb_375,emb_376,emb_377,emb_378,emb_379,emb_380,emb_381,emb_382,emb_383,emb_384,emb_385,emb_386,emb_387,emb_388,emb_389,emb_390,emb_391,emb_392,emb_393,emb_394,emb_395,emb_396,emb_397,emb_398,emb_399,emb_400,emb_401,emb_402,emb_403,emb_404,emb_405,emb_406,emb_407,emb_408,emb_409,emb_410,emb_411,emb_412,emb_413,emb_414,emb_415,emb_416,emb_417,emb_418,emb_419,emb_420,emb_421,emb_422,emb_423,emb_424,emb_425,emb_426,emb_427,emb_428,emb_429,emb_430,emb_431,emb_432,emb_433,emb_434,emb_435,emb_436,emb_437,emb_438,emb_439,emb_440,emb_441,emb_442,emb_443,emb_444,emb_445,emb_446,emb_447,emb_448,emb_449,emb_450,emb_451,emb_452,emb_453,emb_454,emb_455,emb_456,emb_457,emb_458,emb_459,emb_460,emb_461,emb_462,emb_463,emb_464,emb_465,emb_466,emb_467,emb_468,emb_469,emb_470,emb_471,emb_472,emb_473,emb_474,emb_475,emb_476,emb_477,emb_478,emb_479,emb_480,emb_481,emb_482,emb_483,emb_484,emb_485,emb_486,emb_487,emb_488,emb_489,emb_490,emb_491,emb_492,emb_493,emb_494,emb_495,emb_496,emb_497,emb_498,emb_499,emb_500,emb_501,emb_502,emb_503,emb_504,emb_505,emb_506,emb_507,emb_508,emb_509,emb_510,emb_511,emb_512
sandrabullock,-0.003449437441304326,-0.01816418580710888,-0.01967521756887436,0.07279068231582642,0.02851668745279312,0.07295981794595718,0.010770084336400032,0.008670705370604992,0.0025486585218459368,-0.02168050780892372,-0.014862394891679287,-0.034320611506700516,-0.034535542130470276,-0.08970741927623749,-0.01771613024175167,-0.030986422672867775,0.08996272832155228,0.09203770756721497,0.04880712553858757,-0.06878315657377243,-0.08039387315511703,0.02059471420943737,-0.012036100029945374,-0.03619440272450447,-0.026098964735865593,-0.0022569980937987566,-0.012687835842370987,0.02501024305820465,-0.03960064426064491,0.07596030831336975,0.0019614368211477995,-0.015513190068304539,-0.00856366939842701,-0.041398175060749054,-0.06411465257406235,0.005795566365122795,-0.050195466727018356,-0.022172605618834496,-0.012123705819249153,0.0254462119191885,-0.0194794163107872,0.026248563081026077,0.038254860788583755,-0.0377645306289196,0.09791301190853119,0.0493820495903492,0.020379697903990746,-0.0026204113382846117,0.023347433656454086,-0.04506677761673927,0.10782618075609207,0.07804722338914871,0.0658525824546814,0.029029684141278267,-0.05886411294341087,-0.027393322438001633,0.03290265053510666,0.005935234483331442,-0.06582091748714447,-0.008413475938141346,-0.05969109386205673,-0.05086937174201012,0.011537338607013226,-0.01383484061807394,-0.09424146264791489,-0.023981332778930664,-0.07026973366737366,0.06393489986658096,-0.06673313677310944,-0.0008756080642342567,0.01566670648753643,0.05731547251343727,-0.047638215124607086,-0.10940799117088318,0.037885669618844986,-0.07705248892307281,-0.012000715360045433,0.02148115448653698,-0.02160845510661602,-0.03829362243413925,-0.06845735758543015,-0.0037181766238063574,0.002076570177450776,-0.07596838474273682,-0.01703774556517601,0.052565254271030426,-0.040164392441511154,-0.06759029626846313,0.06803347170352936,0.06130070239305496,-0.00030141009483486414,-0.02403080277144909,0.007860591635107994,-0.011337805539369583,0.07471998780965805,0.03705831989645958,0.0381019301712513,0.04287702590227127,-0.014646333642303944,0.03231609985232353,0.00459741335362196,-0.011998789384961128,-0.008311574347317219,-0.013956601731479168,0.0492042675614357,-0.007188315503299236,-0.018663836643099785,0.046960052102804184,0.06243954971432686,0.04004110395908356,0.05818541720509529,0.008108564652502537,0.010685172863304615,-0.03555786982178688,0.02969510667026043,0.054776597768068314,-0.004659549333155155,-0.04449176415801048,0.016857072710990906,0.05143120139837265,-0.0024231441784650087,-0.014268956147134304,0.009293533861637115,-0.029237214475870132,0.0576765239238739,-0.03472990542650223,0.011747389100492,0.044973693788051605,-0.011902526021003723,-0.03019355982542038,0.029864154756069183,0.0015389410546049476,0.0051144808530807495,0.015615816228091717,-0.0005579585558734834,0.07399683445692062,-0.027520639821887016,-0.015761028975248337,0.034836433827877045,0.025745410472154617,-0.016825849190354347,0.001314542954787612,-0.06260088831186295,0.020684273913502693,0.02488132007420063,-0.05360105633735657,0.11300068348646164,-0.02510594017803669,-0.028772879391908646,0.04735637828707695,-4.2774510802701116e-05,0.006028519012033939,0.02197303995490074,0.01031541544944048,0.06945423036813736,0.04479777067899704,0.05817621201276779,-0.009514173492789268,0.13722631335258484,0.013124242424964905,0.01248125545680523,-0.0034180586226284504,-0.07855433970689774,-0.008509868755936623,-0.02773994207382202,-0.004113518167287111,0.02485516667366028,0.018779195845127106,-0.04956729710102081,0.01043656188994646,-0.003239693120121956,0.05952301248908043,0.051526110619306564,0.04058889299631119,0.04356621578335762,0.11039309203624725,-0.01613156683743,-0.03249936178326607,0.003145868657156825,-0.045214004814624786,-0.05439605936408043,0.02104080840945244,-0.033365193754434586,0.02726319432258606,0.03946010395884514,0.028839314356446266,0.043800488114356995,0.029908200725913048,0.07857804745435715,0.0733095332980156,0.00622913334518671,-0.054115381091833115,0.0020879763178527355,-0.01981031522154808,0.030952967703342438,-0.08984573185443878,-0.015139391645789146,-0.022261520847678185,-0.015640821307897568,-0.09331077337265015,0.013835148885846138,-0.054388970136642456,0.016922378912568092,-0.004612925928086042,-0.006843995302915573,-0.02361861802637577,0.040527280420064926,-0.026718737557530403,-0.0031082548666745424,-0.013153117150068283,-0.039348725229501724,-0.018635213375091553,0.0682028979063034,-0.07661949843168259,0.03938373178243637,-0.01146950013935566,0.00037418684223666787,0.022409580647945404,0.07627777010202408,-0.030766339972615242,0.0652383491396904,-0.07342590391635895,-0.02118227258324623,0.007742883171886206,-0.014986942522227764,-0.0702163353562355,-0.008788080886006355,0.021472403779625893,0.018830852583050728,0.010155381634831429,0.05593949928879738,0.040015432983636856,0.019322333857417107,0.0790390819311142,0.024036891758441925,-0.04658549278974533,-0.034397389739751816,-0.0490332767367363,0.01351741049438715,0.0067062824964523315,-0.06443986296653748,-0.06263424456119537,-0.008511317893862724,-0.030003231018781662,0.07080347090959549,-0.020641619339585304,0.002549269935116172,-0.044664591550827026,0.015834694728255272,0.04110480099916458,0.011231575161218643,-0.010008200071752071,0.06671687960624695,-0.029181933030486107,-0.0018285064725205302,0.019115258008241653,0.038637641817331314,-0.08846119046211243,0.02182258479297161,-0.01390879787504673,-0.06894981116056442,0.05108296871185303,0.04984598606824875,0.038777947425842285,0.02928810566663742,-0.015057168900966644,-0.03546588495373726,-0.041266247630119324,-0.06363805383443832,9.439027053304017e-06,-0.07930823415517807,0.06953343749046326,0.007253905758261681,-0.06883162260055542,-0.004900260362774134,-0.05080476403236389,0.010503904893994331,0.0200542900711298,-0.03491958975791931,-0.03811587765812874,-0.018437620252370834,0.0376180075109005,0.1027388721704483,-0.002423918107524514,-0.06965069472789764,0.023010825738310814,0.03360811248421669,0.03861250355839729,-0.08879087120294571,-0.0651320368051529,0.011628558859229088,-0.024524377658963203,-0.03889300674200058,-0.028531095013022423,0.016279026865959167,-0.011213062331080437,0.04598211869597435,0.033631108701229095,0.0392022430896759,-0.0548991858959198,0.01848987489938736,0.020601458847522736,-0.04707610607147217,-0.025602035224437714,0.019991248846054077,0.03915015980601311,-0.030359705910086632,0.0354391410946846,0.052818141877651215,0.057337887585163116,0.0174234751611948,-0.010531317442655563,-0.050194934010505676,0.01847960613667965,0.0683499425649643,-0.06096038222312927,0.020230477675795555,-0.033256664872169495,0.019836779683828354,-0.03203414008021355,0.10056579113006592,0.042778048664331436,0.024683600291609764,0.0006548172095790505,0.011521519161760807,-0.003319264855235815,0.005790710914880037,-0.03073953278362751,0.04414436221122742,-0.02126503363251686,-0.08441095054149628,0.06865193694829941,0.11438384652137756,0.037112075835466385,-0.02301562950015068,0.06030439957976341,0.04068465158343315,0.053479086607694626,0.025675101205706596,-0.03242997080087662,-0.05106018856167793,-0.011978842318058014,0.029760878533124924,0.057293932884931564,-0.0005554828094318509,0.005676901899278164,0.09469573944807053,-0.026039112359285355,0.054476816207170486,-0.10977210849523544,-0.0002096571697620675,0.08096068352460861,-0.07780679315328598,-0.05884522199630737,0.06416743248701096,-0.037482939660549164,0.0534515306353569,0.0019143136451020837,-0.025223050266504288,-0.05717180669307709,0.04940745234489441,-0.03712177276611328,-0.008771557360887527,0.019655747339129448,0.003625874873250723,-0.016010431572794914,-0.010440503247082233,-0.05782541260123253,0.030547505244612694,-0.007546353619545698,-0.06090567260980606,-0.030617116019129753,-0.025813212618231773,-0.0195399709045887,-0.0021270986180752516,0.026302991434931755,0.004479058086872101,0.040324870496988297,-0.01221956592053175,-0.02163730561733246,-0.03480197489261627,-0.043026167899370193,-0.07138556987047195,0.03375062718987465,-0.03962917998433113,0.034020259976387024,-0.059833526611328125,-0.019694026559591293,-0.009225579909980297,-0.02646218053996563,-0.01871822401881218,0.038670387119054794,0.0118034016340971,0.02871585264801979,-0.03891277313232422,0.005204163491725922,-0.01016906462609768,-0.005820565391331911,0.06697405129671097,0.03572477772831917,0.006473718211054802,-0.06765514612197876,-0.06231638044118881,0.030452553182840347,0.06001368165016174,-0.045971352607011795,-0.04809442535042763,0.0810750275850296,0.0022495402954518795,-0.07693739980459213,0.06689974665641785,0.04086056724190712,-0.023076312616467476,-0.0268222875893116,0.014214131981134415,-0.020679153501987457,-0.02824276126921177,0.04228319227695465,0.06598037481307983,0.016606057062745094,0.015103021636605263,-0.04354829341173172,0.025613579899072647,-0.02604403905570507,-0.0481317862868309,-0.008001556620001793,-0.00014293729327619076,0.01762714982032776,-0.04920602962374687,0.007515291217714548,-0.05319836735725403,0.004611702170222998,0.003222743049263954,-0.006844497751444578,0.009342371486127377,-0.02814394049346447,-0.01004748698323965,-0.034812409430742264,-0.035344332456588745,-0.046412356197834015,-0.0065842922776937485,0.029124470427632332,0.04674026742577553,-0.02267925627529621,-0.03811659291386604,-0.07775221765041351,-0.024807831272482872,0.007200285792350769,0.03149721771478653,-0.07662313431501389,-0.07674981653690338,0.008575547486543655,-0.04036560654640198,-0.016255885362625122,-0.028324110433459282,-0.004932064097374678,-0.01727418601512909,0.02143535204231739,-0.019156640395522118,0.026363570243120193,-0.06104877218604088,0.018662992864847183,-0.028321372345089912,0.048098400235176086,0.027842795476317406,0.06149210035800934,0.025106558576226234,0.004145869519561529,0.017330268397927284,0.011175804771482944,0.005406131502240896,-0.10409406572580338,-0.07530035078525543,0.07072699815034866,-0.06600695848464966,-0.007036836352199316,0.03126896917819977,-0.03020322136580944,0.050898678600788116,-0.00019982270896434784,-0.012873143889009953,-0.040176719427108765,0.026058388873934746,-0.08079102635383606,-0.026758568361401558,0.0638730600476265,-0.049502406269311905,0.0364987812936306,-0.006825700402259827,-0.00045753229642286897,0.025513220578432083,0.06080782413482666,-0.02217838354408741,-0.009758155792951584,0.02041850984096527,0.07908686995506287,-0.04023738577961922,0.004576528444886208,0.07072410732507706,0.10266522318124771,0.012839877046644688,-0.07214388251304626,0.08148166537284851,0.001418585772626102,0.07558850944042206,0.08477083593606949,0.036356739699840546,-0.03561253845691681,0.05263100937008858,-0.11263330280780792,-0.07909797132015228,-0.013705909252166748
rdj,0.010724994353950024,-0.068576380610466,-0.001790386624634266,0.012372691184282303,0.08303114026784897,0.082105852663517,0.04936826601624489,-0.012126694433391094,-0.02442290633916855,0.005204425659030676,-0.013848439790308475,-0.04976659640669823,-0.015974994748830795,0.024049250409007072,0.05883698910474777,-0.011429534293711185,0.025344423949718475,0.07530366629362106,0.008237111382186413,-0.008729346096515656,-0.0993514433503151,0.03807559609413147,0.050880707800388336,0.01137702725827694,0.011678582988679409,-0.02569539099931717,-0.0059752194210886955,-0.05199788883328438,0.013670622371137142,0.008888911455869675,-0.018603380769491196,0.023933829739689827,0.001377242268063128,0.07590874284505844,0.03752235323190689,-0.028642568737268448,0.03702526167035103,-0.0005887638544663787,-0.02347571775317192,-0.018472153693437576,0.04828798025846481,-0.03249174356460571,-0.03434983640909195,-0.04509821534156799,-0.028821900486946106,-0.008168269880115986,0.03426813706755638,-0.03723302111029625,-0.015824707224965096,0.014844329096376896,0.01183580793440342,-0.028923874720931053,-0.008336914703249931,0.05458269268274307,-0.007534927688539028,-0.06193586438894272,0.003161525586619973,-0.07869230955839157,0.025983121246099472,0.01888532191514969,-0.05983652174472809,-0.026679139584302902,0.024112435057759285,0.02048690989613533,0.00803353451192379,-0.08430979400873184,0.030412424355745316,-0.030908122658729553,0.049757346510887146,-0.02122819423675537,-0.03970406949520111,-0.03201530873775482,-0.006521810777485371,-0.023072250187397003,0.0035617342218756676,0.06591370701789856,0.08124247193336487,-0.0437626875936985,0.01912987418472767,-0.025377146899700165,0.06984282284975052,0.0014213096583262086,0.02329590730369091,0.006411910988390446,0.058711785823106766,0.10186893492937088,0.002422230551019311,-0.07288005948066711,0.014527802355587482,-0.05444458872079849,-0.008763527497649193,0.0007734584505669773,0.0038842586800456047,0.03843960538506508,0.030714841559529305,-0.02356962114572525,-0.09243728965520859,-0.01765420474112034,-0.023078395053744316,0.0008711999980732799,0.02917424961924553,0.05350913479924202,0.042080171406269073,0.016839150339365005,-0.016734397038817406,-0.012365816161036491,-0.04390996694564819,-0.05918281152844429,-0.0019407238578423858,-0.05914505198597908,-0.08244776725769043,0.014320730231702328,-0.04050591588020325,-0.07015838474035263,-0.08188366144895554,0.06134591996669769,-0.009365785866975784,0.0024789306335151196,0.042149629443883896,0.05776757746934891,0.04029053822159767,-0.023168640211224556,0.032756559550762177,-0.05724456161260605,-0.0023203804157674313,0.0048076859675347805,0.012948477640748024,-0.05182703956961632,0.003393599996343255,-0.009882815182209015,0.06795459985733032,-0.004678787663578987,-0.0914931371808052,0.052891843020915985,-0.0037917103618383408,-0.011741409078240395,-0.043234534561634064,-0.09009566158056259,0.0024222619831562042,-0.015083856880664825,-0.034420307725667953,0.10572022199630737,0.012553594075143337,0.024018604308366776,0.026383206248283386,0.030317211523652077,-0.007480572443455458,-0.0036115990951657295,-0.01751069538295269,-0.04217292740941048,0.01838146522641182,-0.026486072689294815,0.03274472802877426,0.04244362935423851,-0.03870117664337158,-0.00781687255948782,-0.058133240789175034,0.04289397597312927,0.01859348453581333,-0.08513300865888596,-0.09677872061729431,0.058378834277391434,-0.06385448575019836,-0.01269734650850296,0.012660865671932697,0.03799237310886383,-0.08380073308944702,0.014430002309381962,-0.02868824265897274,0.006081723142415285,0.0210894662886858,0.00480404868721962,0.002712509362027049,0.05372680351138115,0.039592910557985306,0.03906939551234245,-0.016447030007839203,0.004893093835562468,-0.051498815417289734,0.02601245790719986,0.03292598947882652,0.06106949970126152,0.04483797773718834,0.024634549394249916,0.04049966484308243,-0.07043615728616714,0.10905060917139053,-0.02932894229888916,0.034028273075819016,-0.06183089688420296,0.02551012672483921,0.06177419051527977,0.028861399739980698,-0.010932248085737228,0.006689764559268951,-0.035676728934049606,-0.058697305619716644,0.03862345591187477,0.019903944805264473,0.04693973809480667,0.020492922514677048,0.01374746859073639,0.11574378609657288,0.011170651763677597,-0.018592454493045807,0.03371071442961693,0.02375900000333786,0.06466765701770782,0.06515546143054962,0.041194848716259,-0.029553016647696495,-0.06437843292951584,-0.08621416240930557,0.030764233320951462,-0.021869948133826256,-0.00765730906277895,0.0561620369553566,-0.027003362774848938,-0.011586623266339302,0.052962686866521835,0.032427508383989334,0.009338518604636192,0.024128373712301254,0.004545722156763077,-0.028880760073661804,0.005024203099310398,0.00831274501979351,-0.01622365042567253,-0.0043179853819310665,-0.002538466127589345,0.006175149232149124,0.03831269219517708,-0.018594028428196907,0.057875897735357285,-0.004416752606630325,-0.07022947072982788,0.02177579514682293,-0.0389711819589138,-0.0037208287976682186,0.04734499007463455,-0.01531987264752388,-0.06395437568426132,-0.05638451501727104,0.02848586067557335,-0.023184489458799362,0.002243357477709651,-0.0323946475982666,-0.05197983607649803,-0.031949374824762344,0.06752956658601761,0.09755173325538635,-0.0025572418235242367,0.02354329451918602,-0.0061223325319588184,-0.05815834924578667,-0.047909725457429886,-0.018098454922437668,-0.02960033342242241,-0.04267584905028343,-0.0438331663608551,-0.0198706965893507,0.014102688990533352,0.08836797624826431,-0.0407194085419178,-0.0658763200044632,0.007471142802387476,0.062099214643239975,-0.009647877886891365,-0.0013747232733294368,-0.0742127001285553,0.028632039204239845,0.0023915101774036884,0.005720713175833225,-0.04520045220851898,-0.047999244183301926,-6.632554141106084e-05,-0.08159933239221573,-0.008687901310622692,-0.0038866305258125067,0.06465470045804977,-0.016075944527983665,0.031779397279024124,-0.06556079536676407,0.05942598357796669,-0.04807300865650177,-0.02741689421236515,0.016837172210216522,-0.020195607095956802,0.04272129386663437,-0.04452671483159065,-0.05865252763032913,-0.021726742386817932,0.007654740009456873,-0.013372311368584633,0.05523097142577171,-0.00939695630222559,-0.042094577103853226,-0.00495461979880929,-0.027468644082546234,-0.047859467566013336,0.0485699363052845,-0.026684973388910294,0.007546641398221254,0.06303203105926514,0.003802939085289836,-0.05103844404220581,-0.042299993336200714,0.06045282259583473,-0.05036766827106476,0.004908252041786909,-0.04094454273581505,0.03106941096484661,0.0036017554812133312,0.016254020854830742,0.01738056167960167,0.030488917604088783,-0.0030918822158128023,0.05878865346312523,0.0642877146601677,0.00044999184319749475,0.05478374660015106,0.01806056872010231,0.13146160542964935,-0.041999638080596924,-0.01148219220340252,0.016991212964057922,-0.02350269816815853,-0.020851481705904007,0.024793997406959534,-0.06415681540966034,-0.014273482374846935,-0.05828140676021576,0.050433624535799026,-0.03322385996580124,-0.033701345324516296,0.04561610147356987,0.07902263849973679,0.024966523051261902,-0.056207988411188126,0.023729713633656502,-0.02234429493546486,0.009253826923668385,-0.06412234902381897,-0.05230867117643356,0.0592634379863739,-0.013989683240652084,-0.052010081708431244,0.05906076356768608,-0.022842692211270332,-0.027031956240534782,0.034821074455976486,-0.028167763724923134,-0.05964955687522888,-0.008951432071626186,0.03513746336102486,0.00866648368537426,-0.015849443152546883,-0.05480170622467995,-0.08630571514368057,0.03990240395069122,-0.0003147230017930269,-0.04205213487148285,0.02627496048808098,0.08475951105356216,-0.008316024206578732,0.006549253594130278,-0.005232260562479496,0.036530956625938416,0.022465551272034645,0.08002026379108429,-0.004536336287856102,0.0265559833496809,-0.024817783385515213,-0.039962150156497955,-0.07267233729362488,-0.005245610605925322,-0.026586035266518593,-0.043635156005620956,0.0750473365187645,0.005069959908723831,-0.01652219519019127,-0.03331005573272705,-0.04442416504025459,-0.008251599967479706,0.004232965409755707,0.01531593594700098,-0.044786643236875534,0.06602772325277328,0.040054090321063995,-0.020322764292359352,-0.05175028741359711,0.07083065062761307,0.004446517210453749,0.0014991604257375002,0.0030830036848783493,-0.0014174431562423706,-0.010348650626838207,-0.013392089866101742,0.06634191423654556,-0.04484087973833084,-0.06558535248041153,0.0034741642884910107,-0.0011889999732375145,0.026495160534977913,0.08010309934616089,-0.06208766996860504,-0.006168586667627096,-0.026000099256634712,0.0027162632904946804,-0.012733465060591698,-0.006663595791906118,-0.06343087553977966,0.04715145751833916,-0.016641130670905113,-0.01898329332470894,-0.05264020338654518,0.0018616697052493691,-0.08697699755430222,0.05866311490535736,-0.01634569838643074,-0.03235866501927376,-0.07403486222028732,-0.034133583307266235,0.054668113589286804,-0.016650445759296417,0.026255089789628983,-0.034470170736312866,0.046044960618019104,-0.07305397838354111,-0.02594836615025997,0.07181872427463531,0.010646875016391277,-0.04440634325146675,0.03477853164076805,0.05178650841116905,-0.038932740688323975,0.026315240189433098,-0.08973007649183273,-0.041367240250110626,-0.05525793880224228,-0.13676723837852478,-0.10559051483869553,-0.015727700665593147,0.0022458694875240326,0.015276889316737652,-0.004662870895117521,0.00532535370439291,0.021862002089619637,-0.010044315829873085,-0.013034061528742313,-0.02356005646288395,0.021646536886692047,0.0256457831710577,-0.03976692259311676,0.03697904944419861,0.024219563230872154,-0.0566663034260273,0.03096422180533409,-0.03646218776702881,0.0982845202088356,-0.007859600707888603,0.08476798236370087,-0.01524654496461153,0.04761440306901932,-0.02283775433897972,-0.06373891979455948,0.03787675499916077,-0.08332210779190063,0.01515995617955923,-0.009944666177034378,-0.013753666542470455,-0.07661174982786179,-0.09822618961334229,0.10813366621732712,0.013717284426093102,0.017104951664805412,0.06879202276468277,-0.01649611070752144,-0.04574640840291977,0.03355145826935768,0.0821971744298935,-0.00907957088202238,-0.03139786422252655,-0.10228703916072845,-0.01844785548746586,0.04403218254446983,-0.04151981696486473,-0.023007994517683983,-0.028703369200229645,0.08894102275371552,-0.06512148678302765,-0.09125755727291107,0.05139590799808502,0.011348743923008442,-0.0057372767478227615,-0.06515421718358994,0.0018839255208149552,0.028150491416454315,0.005126665346324444,0.05275429040193558,0.0776357650756836,-0.09744499623775482,0.0642610713839531,-0.008565752767026424,0.05811534821987152,-0.012537910602986813,-0.013648496940732002,0.07767770439386368,0.06077810004353523,-0.014010077342391014,-0.060678694397211075,-0.021884985268115997
bradpitt,0.04424401372671127,-0.031509365886449814,0.0006477722781710327,-0.06518998742103577,0.018214544281363487,0.01800709031522274,0.02297409437596798,-0.024489985778927803,-0.012458601035177708,-0.011774116195738316,-0.031123148277401924,0.008532128296792507,-0.01869996264576912,0.00691815372556448,-0.022776562720537186,0.09692203253507614,0.029549207538366318,-0.044729795306921005,-0.012389357201755047,-0.03336591273546219,-0.01948152296245098,-0.04960151016712189,0.05203825607895851,0.11497921496629715,0.05915101617574692,-0.039808936417102814,-0.022800955921411514,0.0051519423723220825,0.026332862675189972,0.024206243455410004,-0.004786927718669176,-0.017526084557175636,-0.008430249989032745,-0.0026944810524582863,0.016342174261808395,0.03949149325489998,0.06991536915302277,0.015319377183914185,-0.03141770511865616,0.006793913897126913,0.041366055607795715,-0.03438187390565872,-0.01552546489983797,0.0393303707242012,-0.009475607424974442,-0.04001374542713165,0.019465487450361252,0.017384685575962067,0.0030676883179694414,0.09306425601243973,-0.01889699138700962,-0.08738057315349579,-0.01593383215367794,0.025702008977532387,0.08100991696119308,0.06806544214487076,-0.0018018117407336831,-0.05427408218383789,0.10484971851110458,0.02123032510280609,0.009347865357995033,-0.014256814494729042,0.005853310227394104,0.04141392558813095,0.054721981287002563,0.00267224432900548,0.07039224356412888,0.04454489424824715,0.0530698336660862,-0.016838425770401955,-0.007495962083339691,-0.06037384271621704,0.04917260259389877,0.07694872468709946,-0.08569353073835373,0.04716701805591583,0.036412689834833145,0.03662693873047829,0.05891018360853195,0.04566764459013939,0.05076043680310249,-0.016626106575131416,-0.021406767889857292,0.11331479251384735,0.05676700174808502,-0.020212389528751373,-0.04952244460582733,0.009374500252306461,0.034652676433324814,-0.08999466150999069,0.016836460679769516,0.03629867359995842,0.005774396937340498,0.026336167007684708,-0.056021977216005325,-0.08216812461614609,-0.10210327059030533,-0.016081776469945908,0.05882900208234787,0.039447933435440063,-0.01662711799144745,0.03546076640486717,-0.06502047926187515,-0.0029923487454652786,0.00769199850037694,0.05909087136387825,-0.03446062281727791,-0.06917484104633331,0.026745440438389778,-0.04137056693434715,-0.0635577067732811,0.0033009639009833336,0.032099753618240356,0.013231548480689526,-0.01697167567908764,0.023050008341670036,0.026942508295178413,-0.06015262380242348,-0.0023188891354948282,-0.05435066670179367,0.0608682744204998,0.006600924767553806,0.028130311518907547,-0.04016643390059471,0.00790040846914053,0.05491276830434799,0.0015742535470053554,-0.0499129444360733,0.05517209321260452,0.08098332583904266,-0.025134138762950897,-0.0060721831396222115,-0.07393746823072433,0.026452917605638504,-0.04078545793890953,-0.0634276270866394,-0.05641530454158783,-0.03993627429008484,0.06894584745168686,-0.05350634083151817,-0.00623986404389143,-0.06318802386522293,0.046145688742399216,-0.07786333560943604,-0.03009394183754921,0.0036292329896241426,-0.01770712621510029,-0.0246341060847044,0.022734152153134346,-0.06927624344825745,0.00844778586179018,-0.03776702657341957,0.051847781985998154,0.01501217670738697,-0.0852307453751564,-0.014686929993331432,-0.0833946242928505,-0.0012941001914441586,-0.04840633273124695,-0.029537614434957504,-0.057060178369283676,-0.008426981046795845,0.037393756210803986,-0.053833507001399994,0.012287704274058342,-0.026624174788594246,-0.0058027901686728,0.041722990572452545,-0.004484356380999088,-0.05808236822485924,-0.04098162800073624,-0.08161944150924683,-0.04163486883044243,0.06410284340381622,0.08371973782777786,0.0459836907684803,0.06791255623102188,0.1021391823887825,0.019591020420193672,-0.03436781466007233,0.0014515235088765621,0.028439532965421677,0.01224322710186243,-0.046435728669166565,-0.02074713259935379,-0.0917598232626915,-0.0008866861462593079,0.0032860583160072565,-0.03679654747247696,-0.01700221188366413,-0.00681635458022356,0.033635325729846954,-0.0025620213709771633,-0.013174790889024734,-0.018879711627960205,0.06597156822681427,0.001051216502673924,0.09320130199193954,0.0011973700020462275,0.043923571705818176,-0.038543928414583206,0.053553808480501175,0.11724703758955002,-0.019337791949510574,0.045749861747026443,-0.015318254940211773,0.052247919142246246,0.0980399027466774,0.052203185856342316,-0.0020685913041234016,-0.03326549008488655,0.02697410061955452,-0.05874022841453552,0.08663488179445267,-0.03235902264714241,0.033860038965940475,-0.016588840633630753,-0.04422484710812569,-0.11056503653526306,0.0317775160074234,-0.06291759759187698,0.02731187455356121,0.05918622761964798,0.02574784681200981,-0.10147109627723694,0.0022256227675825357,-0.04703984409570694,0.0186146330088377,-0.016073741018772125,-0.01689349301159382,-0.049298349767923355,-0.06599743664264679,-0.02243928611278534,-0.017318464815616608,0.019831644371151924,-0.08780071139335632,0.010023819282650948,0.03638641908764839,-0.02219817228615284,-0.0067895869724452496,0.030879251658916473,0.015528724528849125,0.027506863698363304,-0.013030095025897026,0.0006708685541525483,-0.01560240425169468,-0.025223340839147568,0.005750917363911867,-0.049005232751369476,0.004335138015449047,0.06641959398984909,0.044046588242053986,-0.03610992431640625,0.00041461153887212276,-0.08173434436321259,-0.06814279407262802,-0.03874099999666214,0.03139732405543327,-0.05379440635442734,0.010689469054341316,0.020880231633782387,-0.04123067855834961,-0.015097207389771938,-0.01991860568523407,-0.0193733349442482,-0.04012112691998482,0.019604211673140526,0.03224235773086548,0.01942734606564045,-0.021880535408854485,-0.013179080560803413,-0.06075429171323776,-0.006310314871370792,-0.005551266483962536,-0.12948380410671234,0.004915345460176468,0.003749188734218478,0.020435282960534096,0.019302356988191605,-0.006651891395449638,-0.008497864007949829,0.034150317311286926,-0.06344371289014816,0.056109100580215454,0.10315445810556412,-0.02434965968132019,-0.027304859831929207,-0.0014245192287489772,0.08283298462629318,-0.023148607462644577,-0.06218728423118591,0.04405955225229263,-0.022196298465132713,0.023824753239750862,0.0949588492512703,0.065675750374794,-0.008165315724909306,0.03326287493109703,-0.015088221989572048,-0.024055490270256996,0.014022793620824814,0.004603910725563765,0.0038572223857045174,0.003569918917492032,-0.018959421664476395,0.03750398010015488,0.026577241718769073,-0.04129514843225479,0.009636923670768738,0.0009488014620728791,-0.010792925953865051,-0.026151426136493683,0.0012171817943453789,0.022435473278164864,-0.03519734367728233,0.04993465170264244,-0.03970659524202347,0.08983796089887619,0.019307941198349,-0.00712586147710681,-0.006449182517826557,-0.048269011080265045,0.07214648276567459,0.016165798529982567,-0.008256461471319199,0.07479932904243469,-0.0856361836194992,0.019604753702878952,-0.048730362206697464,-0.053507234901189804,0.05548528581857681,-0.0471448078751564,-0.028010884299874306,-0.05726417154073715,0.03617246821522713,-0.038085296750068665,0.0226345993578434,0.04452645406126976,-0.041445568203926086,0.09053374081850052,-0.027108818292617798,0.008603958413004875,-0.05559654161334038,-0.0453873910009861,0.02082083746790886,-0.04177747666835785,-0.04862207919359207,0.033738721162080765,0.020006632432341576,0.03040389157831669,0.09687936305999756,-0.020268714055418968,-0.0154031403362751,-0.0494556799530983,-0.06742554903030396,0.0010381852043792605,-0.03618409112095833,-0.045800819993019104,-0.0060732364654541016,-0.008549951016902924,-0.04500623792409897,-0.027059009298682213,0.029354380443692207,0.00369065860286355,0.00589219992980361,0.0400521345436573,0.010236773639917374,-0.009714893065392971,0.014120216481387615,0.02298862487077713,-0.0182895939797163,0.00821960624307394,-0.041745517402887344,-0.026759285479784012,0.0240020751953125,0.029959019273519516,-0.024467548355460167,-0.06466435641050339,0.0851815938949585,0.002893518889322877,0.007358786650002003,0.023451494053006172,-0.03678308054804802,0.05496722087264061,-0.03059973008930683,0.0034425852354615927,0.016728758811950684,0.06609009951353073,-0.02423415333032608,-0.07985520362854004,0.0234256312251091,-0.022035561501979828,0.005164184607565403,0.00773246493190527,0.00700027821585536,-0.045689962804317474,0.04388817399740219,-0.04005183279514313,0.04440419003367424,-0.057557106018066406,-0.011906296946108341,0.06715408712625504,0.023454735055565834,-0.03907168284058571,0.039243247359991074,-0.05359851196408272,0.026291141286492348,-0.09548014402389526,0.04451866075396538,0.07664401084184647,0.02175302617251873,-0.0014967824099585414,-0.034597620368003845,-0.06217581406235695,0.05320550873875618,-0.008731629699468613,0.04786502197384834,-0.04426325485110283,0.021968645974993706,0.019620142877101898,-0.023488113656640053,-0.0024431785568594933,-0.04840495064854622,0.02867269515991211,0.0064085558988153934,0.017596082761883736,0.024923766031861305,0.05268418416380882,-0.016362927854061127,0.030914993956685066,0.03216199949383736,0.048781171441078186,-0.054559946060180664,-0.008083829656243324,0.018104268237948418,0.008074304088950157,0.05951943248510361,0.007745321374386549,-0.003513041650876403,0.02700633369386196,-0.04484133794903755,-0.11238176375627518,-0.0497334823012352,-0.03706515580415726,-0.012563681229948997,0.06748578697443008,0.002835423918440938,0.04534246772527695,0.011027484200894833,0.011152924969792366,0.06531523168087006,-0.026003489270806313,-0.02097577042877674,0.01061408594250679,0.0326630137860775,0.03083040378987789,-0.04912193864583969,-0.03807397931814194,-0.0469493605196476,-0.0046485792845487595,-0.005888279061764479,-0.03366478160023689,-0.05965611711144447,0.08907103538513184,-0.03818667680025101,-0.1421855241060257,0.024797046557068825,-0.08194403350353241,-0.04946108162403107,0.012915560975670815,0.01927420124411583,0.030771706253290176,-0.023451752960681915,0.023150889202952385,-0.02810305915772915,-0.017206260934472084,0.05627153813838959,0.03467273339629173,-0.07562440633773804,-0.0008858779328875244,0.02681562677025795,-0.011052696034312248,-0.05378865823149681,-0.017852114513516426,-0.06348295509815216,0.011933616362512112,-0.018663756549358368,0.008253918960690498,-0.00875711627304554,0.012481516227126122,-0.003006966318935156,-0.06900939345359802,-0.003921640571206808,-0.03351391479372978,-0.03389546275138855,-0.03511498123407364,-0.03221120685338974,0.037229105830192566,-0.09117705374956131,-0.029469016939401627,0.014216759242117405,-0.01100766658782959,-0.01386068295687437,0.009501962922513485,0.03729860112071037,-0.048807308077812195,-0.02656225487589836,0.10798037052154541,-0.003108317032456398,0.047125063836574554,0.03747734799981117,-0.06626071780920029
leonardodicaprio,0.06448039412498474,0.05111829563975334,0.05589129775762558,-0.06022180989384651,0.07546518743038177,0.0041620465926826,-0.012011569924652576,-0.022269845008850098,0.041703637689352036,0.02072247676551342,0.007989443838596344,-0.04370001703500748,-0.030896171927452087,0.03966858610510826,0.0010916804894804955,0.010781409218907356,0.016342153772711754,-0.06875789165496826,-0.03369937464594841,0.026722559705376625,0.02331405133008957,0.03222276642918587,0.025702616199851036,0.04743758216500282,-0.022738710045814514,-0.04643182083964348,0.024974869564175606,-0.015425048768520355,-0.01436686608940363,-0.03750725835561752,-0.048551980406045914,0.043932896107435226,-0.006308593321591616,0.03476091846823692,0.09924791008234024,-0.02331242710351944,0.0011956681264564395,-0.016263576224446297,-0.02801751159131527,-0.005266551859676838,0.023021185770630836,0.010125329717993736,-0.03445732593536377,0.05636036768555641,-0.04342728108167648,0.00107840436976403,0.03699028119444847,0.04210348427295685,-0.04557148367166519,0.05910288915038109,0.011898322962224483,-0.05972179397940636,-0.014091350138187408,-0.0013186221476644278,0.09616964310407639,0.08148092776536942,0.010834356769919395,-0.06696818768978119,0.10169894248247147,0.01821848563849926,0.057677678763866425,-0.03941052034497261,0.04889814928174019,-0.05605805292725563,0.04254835098981857,-0.011767774820327759,0.024001194164156914,0.030557140707969666,0.08379461616277695,-0.0036986875347793102,-0.004594048950821161,-0.02904614806175232,-0.04233579337596893,0.03746388107538223,0.04342886805534363,0.04315546154975891,0.006764044985175133,0.00644315779209137,0.04302627965807915,0.05435783043503761,0.037478502839803696,0.009660223498940468,-0.06960044801235199,0.049588050693273544,-0.024755267426371574,-0.048460811376571655,0.04996620863676071,-0.02943067066371441,0.01893417164683342,-0.030600832775235176,-0.05153994262218475,0.014106185175478458,0.05519925430417061,-0.008091306313872337,-0.09225355088710785,-0.06643547862768173,-0.10237963497638702,0.04167989641427994,0.023018047213554382,-0.052340246737003326,0.06320400536060333,0.06689826399087906,-0.04077097028493881,-0.025240328162908554,0.015892524272203445,0.0861920490860939,-0.026144472882151604,-0.05215665325522423,-0.05123382434248924,-0.0456143282353878,-0.046768322587013245,-0.04169386252760887,-0.011342042125761509,0.008319718763232231,-0.009142706170678139,0.04418801888823509,0.08330097794532776,0.018819965422153473,-0.007445944473147392,-0.07398107647895813,-0.012743235565721989,0.04100430756807327,0.0008414752664975822,0.004138303454965353,0.025380605831742287,0.047237224876880646,0.037432171404361725,-0.08931516855955124,0.03900902345776558,0.1001766100525856,-0.07228726893663406,-0.0025189819280058146,-0.03463980183005333,-0.0867667868733406,-0.0017030842136591673,-0.08095932751893997,-0.0670228898525238,-0.007585128769278526,0.03340191766619682,0.01019344199448824,0.05485159158706665,-0.00032159185502678156,0.016878115013241768,-0.08657006919384003,0.01526070386171341,0.06975827366113663,-0.022228887304663658,0.007959657348692417,-0.022221548482775688,-0.029107341542840004,0.012126271612942219,-0.06938733905553818,-0.05325615778565407,0.007417973130941391,-0.10444891452789307,-0.0493348129093647,-0.0541822649538517,0.021340157836675644,-0.048399414867162704,-0.07243900746107101,-0.021354246884584427,-0.024663323536515236,-0.020003968849778175,-0.021203193813562393,0.010065324604511261,-0.051291439682245255,0.03970981761813164,0.045375071465969086,0.00017186778131872416,-0.02195834554731846,0.04639262333512306,-0.018511898815631866,-0.0027790179010480642,-0.023216942325234413,0.03991808369755745,0.01920883171260357,0.010385358706116676,0.06847415119409561,-0.024300089105963707,0.005102402996271849,0.04757741838693619,0.02789522148668766,-0.02000061236321926,-0.06816567480564117,0.037625450640916824,0.02572306990623474,-0.024489453062415123,0.009588888846337795,-0.07252306491136551,-0.01396154798567295,0.028001440688967705,0.045501068234443665,0.07003099471330643,0.0035493234172463417,0.026628760620951653,-0.015678107738494873,-0.012041948735713959,-0.012244063429534435,-0.007876420393586159,-0.018676098436117172,-0.02104935795068741,0.01920458860695362,0.10298432409763336,-0.01513078436255455,0.010778447613120079,-0.011210729368031025,-0.002468144753947854,0.017212502658367157,0.04364670813083649,0.08025797456502914,-0.0024670164566487074,-0.03379258140921593,-0.09564986824989319,0.014059926383197308,-0.04780249297618866,0.062085799872875214,0.011490246281027794,-0.06930635869503021,-0.08046262711286545,0.0315452478826046,-0.023214245215058327,0.05413311347365379,0.02967206761240959,0.07024507224559784,0.017200706526637077,0.06421509385108948,-0.040170807391405106,0.020835982635617256,0.029906217008829117,0.06294641643762589,-0.04001140594482422,-0.10100080072879791,-0.03721447288990021,-0.060801997780799866,0.050115860998630524,-0.0029067308641970158,-0.06852159649133682,-0.020090725272893906,0.04470952972769737,0.0630270317196846,0.08015676587820053,-0.0008457689546048641,0.010251934640109539,-0.0667991191148758,0.013001409359276295,0.003215374192222953,-0.0634218230843544,-0.04094310849905014,0.06780087947845459,-0.05018043890595436,0.04585060477256775,0.0790988877415657,-0.08895580470561981,-0.04328332841396332,0.018598927184939384,-0.05663905292749405,-0.034287940710783005,0.108086958527565,-0.08531273156404495,0.004581466317176819,-0.000729059858713299,-0.03997688367962837,0.06158623471856117,-0.023620473220944405,-0.05434202775359154,-0.038960158824920654,0.05579803138971329,0.039052095264196396,0.04608588665723801,-0.012444998137652874,0.03142314404249191,2.1784857381135225e-05,-0.021811027079820633,-0.00937607605010271,-0.08379597961902618,0.03172086179256439,-0.015444005839526653,0.0006673541502095759,-0.00974094495177269,-0.03837693855166435,0.04370243474841118,0.056759968400001526,-0.02544928342103958,-0.009118740446865559,0.03588864952325821,0.01503777876496315,-0.01644475758075714,-0.05007406696677208,-0.031000737100839615,0.0029258886352181435,-0.08498533815145493,0.0724373310804367,0.024583185091614723,-0.030820151790976524,0.056000858545303345,0.03949049115180969,-0.039292894303798676,-0.019566381350159645,0.01143042091280222,-0.08047918975353241,0.04538661614060402,0.04092438891530037,-0.03480951488018036,-0.005462759640067816,-0.041159600019454956,-0.031178034842014313,0.10118159651756287,-0.04860112816095352,-0.05590951815247536,0.04440993443131447,-0.04037988930940628,-0.07692307978868484,0.011665980331599712,0.009098706766963005,0.014611887745559216,-0.0481598898768425,-0.05636729300022125,0.0747385323047638,0.02603274956345558,-0.017938293516635895,-0.032669130712747574,0.0097233010455966,0.03741688281297684,-0.039398662745952606,0.02042296715080738,0.005905157886445522,-0.012469441629946232,0.04063420370221138,-0.003682770300656557,0.02028178609907627,-0.005468585528433323,-0.024754829704761505,-0.025732168927788734,-0.010405958630144596,-0.007461740169674158,-0.024687716737389565,0.0017050036694854498,-0.0452079176902771,-0.001278313691727817,0.05509975552558899,0.002336090197786689,0.024845704436302185,-0.03240250051021576,-0.004915779456496239,-0.0007118444191291928,0.028307218104600906,-0.09983771294355392,0.07324634492397308,-0.06459807604551315,0.029157748445868492,0.032825861126184464,-0.05504276603460312,-0.015319710597395897,-0.012549507431685925,-0.10112246125936508,0.002248320495709777,0.02224983647465706,-0.03731231391429901,-0.06589476764202118,0.005266005638986826,-0.007982634007930756,0.016079368069767952,-0.04255319759249687,0.01746533252298832,-0.06946565955877304,0.034237343817949295,-0.01349988766014576,0.038088131695985794,-0.0026314500719308853,0.018795756623148918,-0.06679173558950424,0.057419613003730774,-0.03706562891602516,-0.02819209173321724,-0.01774391531944275,0.02133064530789852,-0.08102275431156158,-0.0995660275220871,0.001142177265137434,0.01600024290382862,-0.015380210243165493,-0.028385765850543976,-0.05801063030958176,-0.01974179968237877,-0.01721174083650112,0.0415131114423275,0.05087227746844292,0.05816890671849251,-0.013939233496785164,-0.04406009614467621,0.0013967636041343212,0.0082032959908247,-0.0801984965801239,0.009679457172751427,-0.010003806091845036,-0.03469844534993172,0.051986757665872574,-0.03797215223312378,0.05964575707912445,-0.0289929062128067,-0.05435870960354805,0.09146571904420853,0.050491247326135635,-0.04330086335539818,0.022197255864739418,-0.02778947539627552,-0.03446356579661369,-0.09249987453222275,0.0701565369963646,0.053251560777425766,-0.02083621732890606,0.027554519474506378,-0.021336140111088753,0.012811376713216305,-0.04885917529463768,-0.027434945106506348,-0.031958408653736115,-0.0273409616202116,0.04774438962340355,0.02010449394583702,-0.026894785463809967,-0.02803289145231247,-0.05433458462357521,0.02961117960512638,0.07019902020692825,-0.031004242599010468,-0.011008886620402336,-0.057641126215457916,-0.03718574717640877,-0.012962338514626026,-0.011062744073569775,-0.052956920117139816,-0.02835950255393982,-0.06045597791671753,-0.014243473298847675,-0.05212576314806938,0.05070433020591736,0.009701680392026901,0.023779476061463356,0.030843259766697884,-0.06239188835024834,-0.09348291903734207,-0.023351235315203667,-0.036080580204725266,0.01752934232354164,0.05933074280619621,-0.004862510599195957,-0.0022462496999651194,-0.03704188019037247,-0.05345245078206062,0.054842282086610794,0.00517639983445406,0.02544097788631916,0.009964808821678162,-0.06504275649785995,-0.03801300376653671,-0.03394097089767456,0.017389915883541107,-0.0147562799975276,0.03237687423825264,0.00322247133590281,-0.002861027605831623,0.004572941455990076,0.043628741055727005,-0.06763780862092972,-0.08540062606334686,-0.010993069037795067,-0.04190382733941078,-0.02420327626168728,-0.0725618526339531,-0.02165677398443222,0.02546856738626957,0.008113538846373558,0.0010691597126424313,-0.044971875846385956,0.028137704357504845,0.06797906011343002,0.02558240108191967,-0.07281821966171265,-0.05757103115320206,0.02912144362926483,0.10095670074224472,-0.03861574828624725,-0.044380296021699905,0.016618339344859123,-0.02681010402739048,-0.0014958290848881006,-0.026592936366796494,0.00703927967697382,-0.023314040154218674,-0.035912856459617615,-0.11482641845941544,0.05142981931567192,-0.011418803595006466,-0.07360571622848511,0.0021530892699956894,0.03403205797076225,-0.026376603171229362,-0.07922692596912384,-0.024015428498387337,0.011135614477097988,0.019594857469201088,0.035670727491378784,-0.029518259689211845,0.030396027490496635,-0.04579729586839676,0.00915891956537962,0.02563786506652832,-0.013690430670976639,0.03040628507733345,-0.023555822670459747,-0.03587130829691887
nicolekidman,-0.025238627567887306,0.0996391549706459,0.007164502050727606,-0.030794665217399597,0.02909836359322071,0.006236418150365353,-0.06885536760091782,-0.0016130702570080757,0.05414789915084839,0.05489537492394447,-0.040062226355075836,0.037880197167396545,-0.06939402222633362,-0.04866455867886543,-0.035384904593229294,-0.004533040802925825,0.011359483003616333,-0.010388125665485859,-0.017981743440032005,0.0165027417242527,-0.0637480691075325,0.00276178284548223,0.0007355942507274449,-0.010898072272539139,-0.006551137659698725,-0.0017855223268270493,0.06599360704421997,0.05448651686310768,-0.029974497854709625,0.028896937146782875,-0.05373076722025871,-0.029939353466033936,-0.027166012674570084,0.025861548259854317,-0.061896055936813354,0.02230781503021717,-0.018977422267198563,0.02765868417918682,-0.03305196389555931,0.028508886694908142,0.0016542542725801468,0.003661718452349305,0.01901942864060402,0.0831095352768898,-0.013609452173113823,-0.004374135751277208,-0.006312221754342318,0.060425542294979095,-0.026327133178710938,0.028897088021039963,0.043941911309957504,0.03178853541612625,0.028548410162329674,-0.014799888245761395,0.01303187757730484,0.1186811551451683,-0.03703602775931358,0.01080574095249176,-0.008245767094194889,-0.06555565446615219,0.018351417034864426,0.017978446558117867,-0.008785326965153217,-0.021855250000953674,0.025692304596304893,-0.025818955153226852,-0.10467538982629776,0.06524863094091415,-0.03139781206846237,0.04803517833352089,0.016363194212317467,0.05324910208582878,-0.06281078606843948,-0.07203584909439087,0.02411777898669243,-0.04079871252179146,-0.11916480958461761,-0.014567195437848568,0.003721036482602358,-0.038460876792669296,-0.024888301268219948,-0.03951449319720268,0.0024122262839227915,-0.05698193609714508,-0.04194246977567673,-0.01010590884834528,-0.09646479785442352,-0.056989867240190506,0.005839888006448746,0.07389143109321594,0.039747655391693115,0.004923862870782614,0.04032870754599571,-0.06863022595643997,-0.05442163720726967,-0.019901813939213753,0.05297062546014786,0.06611140817403793,0.05331062898039818,-0.039207860827445984,0.031432732939720154,0.020915871486067772,-0.07495884597301483,0.013200859539210796,-0.019574889913201332,0.07204849272966385,-0.020035432651638985,0.04191574826836586,0.011564514599740505,0.06037851423025131,-0.0007437759195454419,-0.05658668652176857,0.03094676323235035,0.0987718254327774,0.04090194031596184,0.07520975917577744,0.03524063155055046,0.03880004212260246,-0.0034616654738783836,-0.07432729750871658,0.00923200137913227,0.0005322520737536252,0.03177009895443916,-0.015574849210679531,0.06144136190414429,-0.02829694375395775,0.059407349675893784,0.010131224058568478,-0.12052318453788757,0.012422224506735802,-0.1291552484035492,0.0117148756980896,0.030214721336960793,-0.08335578441619873,-0.053053904324769974,-0.060340940952301025,-0.03286277502775192,-0.018609173595905304,-0.03441661223769188,0.040246300399303436,0.0053663006983697414,-0.06734245270490646,-0.03282090649008751,0.008896507322788239,-0.0028283593710511923,-0.0053114257752895355,0.11481509357690811,0.001008428749628365,-0.06630144268274307,-0.006448498461395502,-0.031236203387379646,0.006224300712347031,-0.010605585761368275,0.016307860612869263,0.025316627696156502,0.04218443110585213,0.0036669145338237286,0.01934003084897995,0.05600536987185478,0.034502774477005005,0.12295136600732803,0.01197545975446701,-0.017188135534524918,-0.006023848429322243,-0.03526164963841438,-0.03624732047319412,0.05574328824877739,-0.0651133805513382,-0.038950879126787186,0.0132907684892416,-0.00776860024780035,0.035200897604227066,0.02114861272275448,0.0590672604739666,0.059274546802043915,0.03624292090535164,0.056461725383996964,0.02730165794491768,-0.09635977447032928,-0.03339321166276932,0.01114838756620884,0.000558318686671555,-0.0720747709274292,0.005314797628670931,0.06296227127313614,0.00417333235964179,-0.003090823767706752,0.10295683890581131,0.05066555738449097,0.06747088581323624,0.024579575285315514,0.023151401430368423,0.00198701792396605,-0.06908321380615234,-0.004820620641112328,-0.016814997419714928,0.026557598263025284,-0.00896106380969286,-0.005373730324208736,-0.05605282261967659,-0.02277921326458454,-0.06670808047056198,-0.006142711266875267,-0.06261138617992401,0.052391961216926575,-0.01738944835960865,0.05585803836584091,-0.03158946707844734,0.018057534471154213,0.03383443504571915,-0.029240550473332405,0.005139085929840803,0.053037501871585846,-0.08728377521038055,0.0492912195622921,-0.039814211428165436,-0.04728786274790764,0.0347265861928463,-0.04310162365436554,0.015801817178726196,-0.048439621925354004,-0.009551131166517735,0.015614296309649944,0.007951769977807999,0.012344170361757278,0.010059182532131672,-0.01814430020749569,0.012226765975356102,0.012714163400232792,0.03734542801976204,-0.016392137855291367,-0.06458313018083572,0.016711164265871048,-0.03555668145418167,0.028992073610424995,0.017078734934329987,-0.014351041056215763,-0.01038444135338068,-0.05192016810178757,0.059965912252664566,-0.010364658199250698,-0.011884328909218311,-0.06645692139863968,-0.04390306770801544,-0.01169408205896616,0.06987649947404861,0.009122270159423351,0.0066174413077533245,0.03899506479501724,0.02047223597764969,-0.03630313649773598,0.034880515187978745,0.05231322720646858,0.014594577252864838,0.01943211816251278,0.04802359640598297,-0.001103022019378841,0.0672057494521141,-0.01620885543525219,0.07168960571289062,0.018888670951128006,0.016029536724090576,-0.018966957926750183,0.02195645309984684,0.019336920231580734,-0.045493047684431076,-0.062214195728302,-0.01835653744637966,-0.03894408792257309,0.03771395608782768,-0.004853709135204554,0.01712983101606369,-0.038715966045856476,-0.03437325358390808,0.0001522933307569474,0.06130622327327728,0.037192001938819885,-0.005053938832134008,0.05558144673705101,-0.032417476177215576,-0.015293805859982967,-0.011536569334566593,0.01534882839769125,-0.013044903986155987,-0.03929336369037628,0.003418869571760297,-0.010742583312094212,0.08462527394294739,-0.023898383602499962,-0.04897269979119301,-0.04945255443453789,0.012375807389616966,-0.02929375320672989,0.017521465197205544,-0.0039713140577077866,-0.08961015194654465,0.02721121907234192,0.03475091606378555,0.05956321209669113,-0.00949438102543354,-0.03542809560894966,0.05464121699333191,-0.07199039310216904,-0.03573581203818321,0.08909288048744202,-0.010221370495855808,0.10588786005973816,-0.005379910580813885,-0.03512008115649223,0.022150389850139618,0.06313808262348175,0.0007584478589706123,-0.0937948077917099,0.02968929149210453,0.11216185241937637,-0.06528601050376892,-0.0319458544254303,0.012658600695431232,-0.04691781848669052,-0.010352004319429398,0.08425448089838028,-0.028163038194179535,-0.029410241171717644,0.09536945074796677,-0.04288306087255478,0.03206178918480873,0.017610009759664536,-0.00664657074958086,0.001459167106077075,-0.00871378742158413,-0.0072961002588272095,-0.05571023374795914,0.02147526852786541,0.01039981935173273,-0.017015010118484497,0.09069996327161789,-0.00771822314709425,-0.0018423465080559254,0.03690684586763382,0.028766818344593048,-0.08154164999723434,0.05035361275076866,0.027040787041187286,0.0542566142976284,0.01821594126522541,-0.012978020124137402,-0.0026662247255444527,0.07364251464605331,0.05634471774101257,0.03621761128306389,-0.059450577944517136,0.05827941372990608,-0.042944397777318954,-0.03511244058609009,-0.08255669474601746,-0.03913332521915436,0.04006447270512581,-0.02458229660987854,0.011211765930056572,-0.016845285892486572,0.02934635803103447,-0.05412350594997406,-0.05655595660209656,-0.030987512320280075,-0.027987252920866013,0.0010209187166765332,0.009930925443768501,-0.0066038090735673904,0.09235968440771103,-0.03487788885831833,-0.0671595111489296,-0.031019723042845726,0.010183212347328663,0.01127211656421423,0.03791242465376854,-0.007506741210818291,-0.043269939720630646,-0.04303549975156784,-0.06499233096837997,-0.025771096348762512,0.033676452934741974,0.0001471569703426212,0.0002888886083383113,-0.01262268889695406,-0.03375871852040291,-0.038086146116256714,0.022742610424757004,0.05646102875471115,0.023906148970127106,-0.058258771896362305,-0.0064935218542814255,-0.011167522519826889,-0.02763453498482704,0.012481912039220333,-0.06314443796873093,-0.07499448955059052,0.051899608224630356,-0.01917385868728161,0.0323478989303112,-0.0021964674815535545,0.0484284833073616,0.060056544840335846,0.021365607157349586,-0.0681992918252945,-0.013508710078895092,-0.0494609996676445,-0.04139281064271927,0.015260984189808369,0.03902936354279518,0.06603088974952698,-0.04174039512872696,0.10232437402009964,-0.02689223922789097,0.06901038438081741,0.04470135644078255,-0.043938759714365005,-0.009115773253142834,0.06385009735822678,-0.028343217447400093,-0.053598061203956604,0.025997623801231384,0.06395594775676727,0.0037947415839880705,0.03542876988649368,0.07211073487997055,-0.042599715292453766,-0.0025616369675844908,-0.060520902276039124,-0.004071400035172701,-0.009936577640473843,-0.08068064600229263,-0.05875547230243683,-0.003079493995755911,-0.09786944836378098,-0.030976399779319763,-0.006545261945575476,-0.0018234406597912312,-0.04093211889266968,-0.04189108684659004,-0.04247087985277176,-0.0005954471998848021,0.03457076847553253,-0.012838260270655155,-0.05328609421849251,-0.13132745027542114,0.02376779168844223,0.0030558323487639427,-0.02930164337158203,-0.04628278687596321,-0.031783752143383026,0.02458043582737446,0.06037617847323418,0.004458101466298103,0.011090661399066448,-0.05339984968304634,-0.022385740652680397,0.04130858927965164,0.011056393384933472,0.03847024589776993,-0.07950558513402939,0.04963746666908264,0.022411465644836426,-0.009866373613476753,0.025723038241267204,0.04862873628735542,0.05520140007138252,0.0030516735278069973,-0.026736270636320114,0.01983514241874218,-0.045961812138557434,0.0016820435412228107,-0.03508191928267479,0.012894023209810257,-0.03674088791012764,-0.07790589332580566,0.014427673071622849,0.09815479815006256,0.05829789489507675,0.009728536009788513,-0.0725381076335907,0.037771206349134445,0.030359409749507904,-0.02732096053659916,-0.011513179168105125,0.05027748644351959,0.059201836585998535,-0.020450007170438766,-0.015839925035834312,-0.031678032130002975,-0.013154551386833191,0.023068709298968315,0.001048332778736949,-0.01925506256520748,-0.015954796224832535,-0.0027080669533461332,0.018459180369973183,-0.09580157697200775,-0.06584309041500092,-0.051726195961236954,0.0012580734910443425,-0.07449740171432495,0.02121424302458763,0.007675080560147762,-0.005092818755656481,0.0482131727039814,0.020724454894661903,-0.040697358548641205,-0.007706633768975735,0.047297749668359756,-0.06327620893716812,0.04545648396015167,-0.02321065217256546
